{
  "input_nodes": 5,
  "hidden_nodes": 10,
  "output_nodes": 1,
  "learning_rate": 0.1,
  "weights_ih": {
    "rows": 10,
    "cols": 5,
    "data": [
      [
        0.777693227883498,
        0.10822718902422368,
        -0.6638385603784895,
        0.020033154917041607,
        0.2062319772409084
      ],
      [
        0.06161947629146987,
        -0.8556194335919005,
        -0.7413555048888005,
        -0.5858721346809761,
        -0.1665173786227574
      ],
      [
        0.47905713997006083,
        0.23127632274979248,
        0.04232331681862078,
        0.8991839698604496,
        0.6894067400085107
      ],
      [
        -0.6591436632540537,
        -0.13251936000299436,
        0.8031686864803218,
        -0.3996317475486485,
        0.15012840069974676
      ],
      [
        0.4121862545206225,
        -0.7912074948679755,
        -0.8191691129712788,
        -0.31506990375915256,
        -0.696760447063089
      ],
      [
        0.05616012219827965,
        0.7222760533008299,
        0.6325935285740837,
        0.3071714940741894,
        -0.4807431117249603
      ],
      [
        -0.4428864946312519,
        0.8534934354462598,
        0.33145595178795206,
        0.0020756191452711015,
        -0.25231496034244927
      ],
      [
        -0.07354504431561236,
        0.2590043455570856,
        0.7542491526334784,
        0.5876623491280997,
        0.7139406063488329
      ],
      [
        -0.15600400672495032,
        -0.44420602413643806,
        -0.2997782770280046,
        0.4109461333366372,
        -0.34026796818054894
      ],
      [
        -0.038174725068785165,
        0.4538911780910384,
        0.6355961088674039,
        0.5870306532067179,
        0.018172806207760454
      ]
    ]
  },
  "weights_ho": {
    "rows": 1,
    "cols": 10,
    "data": [
      [
        0.6981274144826619,
        -0.08716341085604684,
        0.6972319190626881,
        -0.7423045070808847,
        -0.5347514743552328,
        0.8564080504943783,
        -0.6719204506080961,
        0.16233665066936487,
        0.734522422697864,
        0.009749301887245654
      ]
    ]
  },
  "bias_h": {
    "rows": 10,
    "cols": 1,
    "data": [
      [
        -0.41329597635768867
      ],
      [
        0.12408954442126019
      ],
      [
        -0.8317203942552622
      ],
      [
        0.8807762661156016
      ],
      [
        0.5347054312619792
      ],
      [
        -0.2624246080932826
      ],
      [
        0.8360440524078301
      ],
      [
        0.2753094348675211
      ],
      [
        -0.5850828956729662
      ],
      [
        0.20281162504722608
      ]
    ]
  },
  "bias_o": {
    "rows": 1,
    "cols": 1,
    "data": [
      [
        -0.47853122400556636
      ]
    ]
  }
}
