{
  "input_nodes": 5,
  "hidden_nodes": 10,
  "output_nodes": 1,
  "learning_rate": 0.1,
  "weights_ih": {
    "rows": 10,
    "cols": 5,
    "data": [
      [
        0.04691450080540038,
        -0.0717397803415909,
        0.4712677714507074,
        -0.7188747138999472,
        -0.10044075869553692
      ],
      [
        -0.26624797544868706,
        0.9185313837267444,
        0.20635061158145307,
        -0.8297139460336642,
        0.7459846296059123
      ],
      [
        -0.638081575843203,
        -0.08316576065566084,
        0.6686178581910021,
        -0.21294360939092227,
        -0.161415850285612
      ],
      [
        -0.7927861014140665,
        -0.9471215092643548,
        0.21350370296514232,
        0.4298045829290995,
        0.25959671794274053
      ],
      [
        0.7320396411626513,
        -0.24960872854758875,
        0.48256731078142545,
        -0.20646483418034478,
        0.47938928477571396
      ],
      [
        -0.10301645647961344,
        -0.33098301833244026,
        -0.5528502182054646,
        0.9991053524316329,
        0.015867058977487858
      ],
      [
        0.651870651712672,
        -0.9063426605014242,
        -0.8377876763125558,
        0.477526338888139,
        0.3285639321656517
      ],
      [
        0.00016107324603042983,
        -0.5724529952752251,
        -0.5443042396473552,
        0.7448777739982826,
        0.2709143828878169
      ],
      [
        0.6496855456996204,
        -0.5354291694729669,
        -0.31701141670162425,
        0.586772835814553,
        -0.4456816068673457
      ],
      [
        0.44108062015462846,
        -0.09130894133270395,
        0.12666949261796034,
        0.7980511210614862,
        0.11632513343545936
      ]
    ]
  },
  "weights_ho": {
    "rows": 1,
    "cols": 10,
    "data": [
      [
        -0.9416483792117076,
        0.31383422174374154,
        -0.5309890328373652,
        -0.29095988079397905,
        0.9605096841427061,
        -0.5043528980999423,
        0.9784524969187873,
        -0.31844458966987377,
        0.9969852768034695,
        -0.538487773670528
      ]
    ]
  },
  "bias_h": {
    "rows": 10,
    "cols": 1,
    "data": [
      [
        0.5721836217665248
      ],
      [
        -0.4777293941360843
      ],
      [
        0.31632688976857315
      ],
      [
        0.30529458608073057
      ],
      [
        0.3871819366528402
      ],
      [
        -0.15972578798084003
      ],
      [
        0.36508356475071135
      ],
      [
        -0.5685286651750339
      ],
      [
        0.6955068712393206
      ],
      [
        0.0989504778633905
      ]
    ]
  },
  "bias_o": {
    "rows": 1,
    "cols": 1,
    "data": [
      [
        -0.460819228843369
      ]
    ]
  }
}
